{"ip":0,"fr":60,"v":"5.1.20","assets":[],"layers":[{"ty":4,"nm":"c1","ip":0,"st":0,"ind":2,"hix":2,"ks":{"o":{"a":0,"k":100},"or":{"a":0,"k":[0,0,0]},"a":{"a":0,"k":[37.50235,55.00325,0]},"p":{"s":true,"x":{"a":0,"k":274.5},"y":{"a":0,"k":258.99675}},"rx":{"a":0,"k":0},"ry":{"a":0,"k":0},"rz":{"a":0,"k":0},"s":{"a":0,"k":[100,100,100]}},"shapes":[{"ty":"gr","nm":"c1 shape group","it":[{"ty":"sh","ks":{"a":0,"k":{"c":true,"v":[[561.0723,494.6198],[535.9441,469.4921],[510.816,494.6198],[535.9441,519.7475]],"i":[[0,13.87760000000003],[13.877899999999954,0],[0,-13.877700000000004],[-13.877900000000068,0]],"o":[[0,-13.877700000000004],[-13.877899999999954,0],[0,13.877700000000004],[13.877900000000068,0]]}}},{"ty":"st","o":{"a":0,"k":0},"w":{"a":0,"k":0},"c":{"a":0,"k":[0,0,0,0]},"lc":3,"lj":1,"ml":1},{"ty":"fl","o":{"a":0,"k":100},"r":2,"c":{"a":0,"k":[1,0.4980392156862745,1,1]}},{"ty":"tr","o":{"a":0,"k":100},"a":{"a":0,"k":[0,0]},"s":{"a":0,"k":[-100,100]},"p":{"a":0,"k":[-498.27,567.984]},"r":{"a":0,"k":180.02333923010465}}]},{"ty":"gr","nm":"c1 shape group","it":[{"ty":"sh","ks":{"a":0,"k":{"c":true,"v":[[568.4625,495.565],[535.8583,462.9613],[503.2541,495.565],[535.8583,528.1686]],"i":[[0,18.006500000000017],[18.0068,0],[0,-18.006500000000017],[-18.0068,0]],"o":[[0,-18.006500000000017],[-18.0068,0],[0,18.006500000000017],[18.0068,0]]}}},{"ty":"st","o":{"a":0,"k":0},"w":{"a":0,"k":0},"c":{"a":0,"k":[0,0,0,0]},"lc":3,"lj":1,"ml":1},{"ty":"fl","o":{"a":0,"k":100},"r":2,"c":{"a":0,"k":[0,0.4980392156862745,1,1]}},{"ty":"tr","o":{"a":0,"k":100},"a":{"a":0,"k":[0,0]},"s":{"a":0,"k":[-100,100]},"p":{"a":0,"k":[-498.27,567.984]},"r":{"a":0,"k":180.02333923010465}}]},{"ty":"gr","nm":"c1 shape group","it":[{"ty":"sh","ks":{"a":0,"k":{"c":true,"v":[[568.9428,512.0523],[535.222,511.5406],[501.5011,511.029],[519.001,539.5064],[536.501,567.9839],[552.7219,540.0181]],"i":[[0,0],[0,0],[0,0],[0,0],[0,0],[0,0]],"o":[[0,0],[0,0],[0,0],[0,0],[0,0],[0,0]]}}},{"ty":"st","o":{"a":0,"k":0},"w":{"a":0,"k":0},"c":{"a":0,"k":[0,0,0,0]},"lc":3,"lj":1,"ml":1},{"ty":"fl","o":{"a":0,"k":100},"r":2,"c":{"a":0,"k":[1,1,1,1]}},{"ty":"tr","o":{"a":0,"k":100},"a":{"a":0,"k":[0,0]},"s":{"a":0,"k":[-100,100]},"p":{"a":0,"k":[-498.27,567.984]},"r":{"a":0,"k":180.02333923010465}}]},{"ty":"gr","nm":"c1 shape group","it":[{"ty":"sh","ks":{"a":0,"k":{"c":true,"v":[[573.2748,495.4791],[535.7725,457.9774],[498.2701,495.4791],[535.7725,532.9808]],"i":[[0,20.711599999999976],[20.71199999999999,0],[0,-20.711700000000008],[-20.71199999999999,0]],"o":[[0,-20.711700000000008],[-20.71199999999999,0],[0,20.711700000000064],[20.71199999999999,0]]}}},{"ty":"st","o":{"a":0,"k":0},"w":{"a":0,"k":0},"c":{"a":0,"k":[0,0,0,0]},"lc":3,"lj":1,"ml":1},{"ty":"fl","o":{"a":0,"k":100},"r":2,"c":{"a":0,"k":[1,1,1,1]}},{"ty":"tr","o":{"a":0,"k":100},"a":{"a":0,"k":[0,0]},"s":{"a":0,"k":[-100,100]},"p":{"a":0,"k":[-498.27,567.984]},"r":{"a":0,"k":180.02333923010465}}]}],"op":767},{"ty":4,"nm":"c2","ip":0,"st":0,"ind":1,"hix":1,"ks":{"o":{"a":0,"k":100},"or":{"a":0,"k":[0,0,0]},"a":{"a":0,"k":[262.2047,262.2047,0]},"p":{"s":true,"x":{"a":0,"k":274.99999999999994},"y":{"a":0,"k":275}},"rx":{"a":0,"k":0},"ry":{"a":0,"k":0},"rz":{"a":1,"k":[{"t":0,"s":[0],"e":[11459.155902616465],"i":{"x":[0.885],"y":[0.365]},"o":{"x":[0.455],"y":[0.03]}},{"t":767}]},"s":{"a":0,"k":[100,100,100]}},"shapes":[{"ty":"gr","nm":"c2 shape group","it":[{"ty":"sh","ks":{"a":0,"k":{"c":true,"v":[[407.4775,626.5795],[412.9032,616.9034],[409.8761,606.3144],[399.9779,601.5348],[389.4998,605.2034],[384.1072,614.8823],[387.1729,625.4082],[397.0174,630.233]],"i":[[-3.0844666666666853,2.594066666666663],[-0.5326666666666711,3.8565999999999576],[2.5740000000000123,3.06053333333341],[4.0248000000000275,0.12579999999991287],[3.0844666666666853,-2.5941333333333887],[0.49860000000001037,-3.8484666666666953],[-2.5740000000000123,-3.0605999999999085],[-3.988999999999976,-0.15599999999994907]],"o":[[3.0844666666666285,-2.5941333333333887],[0.5559333333333143,-3.99879999999996],[-2.5740000000000123,-3.060600000000022],[-3.9009333333332847,-0.14840000000003783],[-3.096466666666686,2.6041333333333796],[-0.5301999999999794,3.956666666666706],[2.5740000000000123,3.06053333333341],[3.888933333333341,0.15840000000002874]]}}},{"ty":"sh","ks":{"a":0,"k":{"c":true,"v":[[401.8821,619.9263],[397.7672,621.55],[393.8261,619.8127],[392.7571,615.6293],[395.0952,611.8565],[399.2309,610.1847],[403.223,611.9098],[404.1721,616.1328]],"i":[[1.2074666666666758,-1.0154666666666117],[1.5118666666666627,-0.04679999999996198],[1.0155333333333374,1.2075333333333447],[-0.3229999999999791,1.5575333333333674],[-1.2672666666666714,1.0657999999999674],[-1.5138000000000034,0.06886666666662222],[-1.0255999999999972,-1.2194666666666762],[0.35259999999999536,-1.64373333333333]],"o":[[-1.231399999999951,1.035666666666657],[-1.6118666666666854,0.049333333333379414],[-1.035666666666657,-1.2314000000000078],[0.291466666666679,-1.4493999999999687],[1.2433333333333394,-1.0456666666666479],[1.6357999999999606,-0.06939999999997326],[0.985333333333358,1.1716000000000122],[-0.3191999999999666,1.5135333333333847]]}}},{"ty":"st","o":{"a":0,"k":0},"w":{"a":0,"k":0},"c":{"a":0,"k":[0,0,0,0]},"lc":3,"lj":1,"ml":1},{"ty":"fl","o":{"a":0,"k":100},"r":1,"c":{"a":0,"k":[1,1,1,1]}},{"ty":"tr","o":{"a":0,"k":100},"a":{"a":0,"k":[0,0]},"s":{"a":0,"k":[-100,100]},"p":{"a":0,"k":[-278.635,758.489]},"r":{"a":0,"k":180.02333923010465}}]},{"ty":"gr","nm":"c2 shape group","it":[{"ty":"sh","ks":{"a":0,"k":{"c":true,"v":[[386.7153,601.236],[393.7472,592.6559],[392.6156,581.701],[383.704,575.2665],[372.7463,577.0492],[365.7464,585.6378],[366.9272,596.5373],[375.7779,603.0069]],"i":[[-3.490066666666678,2.015666666666675],[-1.1978666666666982,3.704399999999964],[2,3.4629999999999654],[3.940999999999974,0.8266666666667106],[3.490066666666678,-2.015666666666675],[1.163000000000011,-3.7022666666666737],[-2.000066666666669,-3.4629999999999654],[-3.9004666666666594,-0.8500666666666348]],"o":[[3.490066666666678,-2.015666666666675],[1.2455999999999676,-3.8402666666667074],[-2.000066666666669,-3.463000000000079],[-3.8150666666666666,-0.827199999999948],[-3.503600000000006,2.02346666666665],[-1.2128666666666845,3.8033333333333985],[2,3.463000000000079],[3.8015333333333388,0.8350666666666484]]}}},{"ty":"sh","ks":{"a":0,"k":{"c":true,"v":[[382.3676,593.7081],[378.0323,594.5883],[374.4551,592.1895],[374.1331,587.8837],[377.094,584.5771],[381.4581,583.6531],[385.0876,586.0488],[385.2848,590.3726]],"i":[[1.366266666666661,-0.789133333333325],[1.4968666666666763,0.21786666666673682],[0.789133333333325,1.366266666666661],[-0.589999999999975,1.477266666666651],[-1.4338666666666882,0.8281333333333123],[-1.5025333333333606,-0.1965333333333774],[-0.7968666666666877,-1.3798000000000457],[0.6342000000000212,-1.5568666666666786]],"o":[[-1.3933333333333167,0.8046666666667761],[-1.5956666666666592,-0.2329333333333352],[-0.8046666666666624,-1.393266666666591],[0.5400666666666325,-1.3762666666666519],[1.4068666666666445,-0.8125333333333629],[1.6227999999999838,0.21733333333338578],[0.7656666666666752,1.3256666666666206],[-0.5785333333333824,1.4345333333333201]]}}},{"ty":"st","o":{"a":0,"k":0},"w":{"a":0,"k":0},"c":{"a":0,"k":[0,0,0,0]},"lc":3,"lj":1,"ml":1},{"ty":"fl","o":{"a":0,"k":100},"r":1,"c":{"a":0,"k":[1,1,1,1]}},{"ty":"tr","o":{"a":0,"k":100},"a":{"a":0,"k":[0,0]},"s":{"a":0,"k":[-100,100]},"p":{"a":0,"k":[-278.635,758.489]},"r":{"a":0,"k":180.02333923010465}}]},{"ty":"gr","nm":"c2 shape group","it":[{"ty":"sh","ks":{"a":0,"k":{"c":true,"v":[[382.7144,566.6696],[383.3213,565.9892],[383.3383,565.0448],[382.0763,561.9154],[380.8144,558.786],[379.8,558.2911],[379.5706,558.4108],[369.6621,562.8414],[363.2262,565.4888],[362.5035,565.4567],[362.2243,564.0387],[361.9361,562.599],[360.858,562.2571],[358.6387,563.1447],[356.3978,564.0411],[355.9705,564.8503],[354.4758,571.318],[354.2792,572.1336],[354.4295,572.3758],[355.9786,574.6017],[357.4116,576.9766],[358.0131,577.0839],[358.4503,576.8533],[367.6921,572.773],[375.2032,569.7213]],"i":[[-1.6613333333333458,0.683400000000006],[-0.13006666666666433,0.34066666666660694],[0.11880000000002156,0.28893333333337523],[0.556066666666652,1.3927999999999656],[0.28520000000003165,0.6933999999999969],[0.4563333333333617,-0.20460000000002765],[0,0],[1.1701999999999657,-0.4813333333332821],[0,0],[0.0772666666666737,0.18780000000003838],[0.06726666666662595,0.6563999999999623],[0.12479999999999336,0.30339999999989686],[0.5345333333333429,-0.21986666666668953],[0.9883333333333439,-0.3896666666665851],[0.5056000000000154,-0.20799999999997],[-0.004066666666687979,-0.42060000000003583],[0.9888000000000261,-1.8256666666666206],[-0.07126666666664505,-0.1734000000000151],[-0.0882666666666978,-0.13260000000002492],[-0.6913333333333185,-0.9825333333334356],[-0.6454000000000519,-1.035133333333306],[-0.2600666666666598,0.10693333333335886],[-0.2048000000000343,0.11806666666666388],[-4.95526666666666,2.0383333333332985],[-3.3460666666666725,1.3510666666666111]],"o":[[0.2745333333332951,-0.11293333333333067],[0.1301333333333332,-0.34066666666660694],[-0.28526666666670053,-0.6934666666667226],[-0.556066666666652,-1.3928666666666913],[-0.21993333333330156,-0.5345333333333429],[0,0],[-5.435466666666684,2.4723999999999933],[0,0],[-0.4045333333333474,0.16639999999995325],[-0.11886666666663359,-0.28893333333337523],[-0.06733333333335167,-0.6563999999999623],[-0.18419999999997572,-0.4478000000000293],[-0.4911999999999921,0.20206666666661022],[-0.9883333333332871,0.38960000000008677],[-0.2889333333333184,0.11886666666657675],[-0.0076666666666938,2.4861333333334414],[-0.20233333333334258,0.3703333333334058],[0.011933333333331575,0.028866666666658602],[0.3413999999999646,0.5013999999999896],[0.3099333333333334,0.5481333333333396],[0.14093333333329383,0.1784666666666226],[0.08666666666664469,-0.035666666666656965],[1.2059333333333484,-0.6818666666666786],[1.6613333333333458,-0.683400000000006],[3.3461333333333414,-1.3510666666667248]]}}},{"ty":"st","o":{"a":0,"k":0},"w":{"a":0,"k":0},"c":{"a":0,"k":[0,0,0,0]},"lc":3,"lj":1,"ml":1},{"ty":"fl","o":{"a":0,"k":100},"r":1,"c":{"a":0,"k":[1,1,1,1]}},{"ty":"tr","o":{"a":0,"k":100},"a":{"a":0,"k":[0,0]},"s":{"a":0,"k":[-100,100]},"p":{"a":0,"k":[-278.635,758.489]},"r":{"a":0,"k":180.02333923010465}}]},{"ty":"gr","nm":"c2 shape group","it":[{"ty":"sh","ks":{"a":0,"k":{"c":true,"v":[[355.4059,515.7973],[365.667,511.581],[369.8689,501.4009],[365.0774,491.5083],[354.5858,487.8782],[344.3489,492.1172],[340.2166,502.2719],[344.9378,512.1665]],"i":[[-4.028533333333314,0.1183333333333394],[-2.8121333333332927,2.6925333333333583],[0.11740000000003192,3.9973333333333585],[3.0768666666666604,2.597666666666669],[4.028599999999983,-0.1183333333333394],[2.780399999999986,-2.7072000000000003],[-0.11740000000003192,-3.9974000000000274],[-3.0300666666666416,-2.5990666666667153]],"o":[[4.02860000000004,-0.11833333333322571],[2.918666666666695,-2.7894000000000005],[-0.11746666666664396,-3.9973999999999705],[-2.9658000000000015,-2.538400000000024],[-4.044199999999989,0.11880000000002156],[-2.8722666666666896,2.7724000000000046],[0.11739999999997508,3.9973333333333017],[2.9501999999999953,2.5388666666666495]]}}},{"ty":"sh","ks":{"a":0,"k":{"c":true,"v":[[355.1507,507.1077],[350.9169,505.8255],[348.9062,502.0166],[350.6657,498.0735],[354.8411,496.5678],[359.1211,497.8252],[361.1793,501.6561],[359.3013,505.5558]],"i":[[1.577066666666667,-0.04633333333333667],[1.2142000000000053,0.9020666666667125],[0.04633333333333667,1.577066666666667],[-1.220266666666646,1.020466666666664],[-1.6551333333333105,0.04860000000002174],[-1.2293999999999983,-0.8860000000000241],[-0.04680000000001883,-1.5926666666666165],[1.2969333333332997,-1.069533333333311]],"o":[[-1.6083333333332916,0.04726666666664414],[-1.2941333333333205,-0.9621999999999957],[-0.04726666666664414,-1.6082666666666796],[1.128466666666668,-0.9552000000000476],[1.6239333333333548,-0.0477333333333263],[1.325333333333333,0.9612666666666883],[0.04493333333329019,1.530266666666705],[-1.1899999999999977,0.9882666666666751]]}}},{"ty":"st","o":{"a":0,"k":0},"w":{"a":0,"k":0},"c":{"a":0,"k":[0,0,0,0]},"lc":3,"lj":1,"ml":1},{"ty":"fl","o":{"a":0,"k":100},"r":1,"c":{"a":0,"k":[1,1,1,1]}},{"ty":"tr","o":{"a":0,"k":100},"a":{"a":0,"k":[0,0]},"s":{"a":0,"k":[-100,100]},"p":{"a":0,"k":[-278.635,758.489]},"r":{"a":0,"k":180.02333923010465}}]},{"ty":"gr","nm":"c2 shape group","it":[{"ty":"sh","ks":{"a":0,"k":{"c":true,"v":[[353.2094,482.8233],[366.2647,478.8353],[372.4142,466.3601],[371.8856,465.5548],[366.8636,463.19],[365.9717,464.1797],[360.8486,473.2949],[360.0644,473.4953],[359.9441,473.337],[360.2028,472.8283],[361.7105,468.5407],[360.2026,461.571],[354.0864,458.0398],[345.5515,460.4456],[341.7814,468.6576],[344.2472,478.3123]],"i":[[-3.8850000000000477,-0.5304000000000428],[-3.626733333333334,3.3518666666666377],[-0.7080000000000268,5.18513333333334],[0.3946666666666374,0.22733333333331984],[0.8048666666666691,0.10986666666667588],[0.09933333333333394,-0.7274666666666576],[2.7391333333333137,-1.123800000000017],[0.15480000000002292,0.021133333333352766],[-0.012666666666689252,0.09286666666667998],[-0.1618666666666968,0.26173333333332494],[-0.22399999999998954,1.6406666666666752],[1.3751333333333378,1.9377999999999815],[2.6931999999999903,0.3677333333333195],[2.1919333333333384,-2.0814666666666994],[0.48819999999994934,-3.575400000000002],[-2.170066666666685,-2.582400000000007]],"o":[[5.0767999999999915,0.6931999999999903],[3.3916666666666515,-3.1316666666666606],[0.04226666666664869,-0.3095333333333201],[-2.543133333333344,-1.4666666666666401],[-0.49526666666668007,-0.06766666666663923],[-0.6762666666666632,4.9529999999999745],[-0.367999999999995,0.15473333333335404],[-0.09286666666667998,-0.012666666666689252],[0.010600000000010823,-0.07740000000001146],[0.7811333333333437,-1.2177333333333422],[0.3698666666666668,-2.708666666666659],[-1.38426666666669,-1.9864000000000033],[-3.4979999999999905,-0.47759999999999536],[-2.025199999999984,1.8992666666666764],[-0.5262000000000171,3.854066666666654],[2.0897999999999683,2.4769333333333066]]}}},{"ty":"sh","ks":{"a":0,"k":{"c":true,"v":[[352.1693,473.8126],[349.2874,472.4022],[348.3012,469.4059],[352.8672,466.1035],[355.4757,467.5239],[356.214,470.3444],[354.9313,472.9836]],"i":[[1.0679999999999836,0.14586666666667725],[0.7449333333333357,0.7796666666666852],[-0.1564000000000192,1.145400000000052],[-2.6931999999999903,-0.3677333333333195],[-0.6400666666666552,-0.7969333333333566],[0.14793333333335568,-1.0834666666666521],[0.705066666666653,-0.660533333333376]],"o":[[-1.1763333333333321,-0.16059999999998809],[-0.8138666666666836,-0.8521333333333132],[0.35079999999999245,-2.5693333333333044],[1.0989333333333207,0.1500000000000341],[0.6401333333333241,0.7968666666666309],[-0.15006666666664614,1.0989333333333207],[-0.773333333333369,0.6985333333333301]]}}},{"ty":"st","o":{"a":0,"k":0},"w":{"a":0,"k":0},"c":{"a":0,"k":[0,0,0,0]},"lc":3,"lj":1,"ml":1},{"ty":"fl","o":{"a":0,"k":100},"r":1,"c":{"a":0,"k":[1,1,1,1]}},{"ty":"tr","o":{"a":0,"k":100},"a":{"a":0,"k":[0,0]},"s":{"a":0,"k":[-100,100]},"p":{"a":0,"k":[-278.635,758.489]},"r":{"a":0,"k":180.02333923010465}}]},{"ty":"gr","nm":"c2 shape group","it":[{"ty":"sh","ks":{"a":0,"k":{"c":true,"v":[[376.9143,407.3815],[387.7591,409.7185],[396.988,403.7084],[398.6421,392.8416],[392.0516,383.9075],[381.2138,381.603],[372.0567,387.6314],[370.3435,398.4602]],"i":[[-3.387200000000007,-2.1841999999999757],[-3.8426666666666733,0.6262666666666519],[-2.1672666666666487,3.360933333333321],[1.0645333333333156,3.8835999999999444],[3.387133333333338,2.1841999999999757],[3.824866666666651,-0.6564000000000192],[2.1672666666666487,-3.360933333333321],[-1.025199999999984,-3.858199999999954]],"o":[[3.3871999999999503,2.1842666666666446],[3.985333333333358,-0.6458000000000084],[2.1672666666666487,-3.360933333333321],[-1.0065333333333797,-3.7718666666666536],[-3.4003333333333217,-2.192733333333365],[-3.937466666666694,0.6579999999999586],[-2.1673333333333176,3.361000000000047],[0.9933333333333394,3.763333333333378]]}}},{"ty":"sh","ks":{"a":0,"k":{"c":true,"v":[[381.6257,400.0754],[378.8626,396.6207],[379.3628,392.3428],[383.0462,390.0897],[387.3402,391.2136],[390.1554,394.674],[389.6819,398.9971],[385.9254,401.1473]],"i":[[1.3260000000000218,0.8550666666666871],[0.48980000000000246,1.431133333333321],[-0.8550666666666871,1.325999999999965],[-1.58359999999999,0.14979999999997062],[-1.3915999999999826,-0.8974000000000046],[-0.5113999999999805,-1.4264666666666699],[0.8635333333333506,-1.3391333333333364],[1.674666666666667,-0.1468666666666536]],"o":[[-1.352266666666651,-0.8720000000000141],[-0.5215999999999781,-1.5259333333333416],[0.8720000000000141,-1.3522666666667078],[1.4710666666666725,-0.14813333333330547],[1.3654000000000224,0.8804666666666776],[0.5478666666666641,1.5429333333333375],[-0.8296666666666397,1.2866000000000213],[-1.5404666666666458,0.14046666666666852]]}}},{"ty":"st","o":{"a":0,"k":0},"w":{"a":0,"k":0},"c":{"a":0,"k":[0,0,0,0]},"lc":3,"lj":1,"ml":1},{"ty":"fl","o":{"a":0,"k":100},"r":1,"c":{"a":0,"k":[1,1,1,1]}},{"ty":"tr","o":{"a":0,"k":100},"a":{"a":0,"k":[0,0]},"s":{"a":0,"k":[-100,100]},"p":{"a":0,"k":[-278.635,758.489]},"r":{"a":0,"k":180.02333923010465}}]},{"ty":"gr","nm":"c2 shape group","it":[{"ty":"sh","ks":{"a":0,"k":{"c":true,"v":[[399.1864,384.9217],[406.4153,386.852],[412.9665,382.6803],[416.7677,375.0798],[413.5011,367.5148],[410.5327,366.0898],[407.8709,365.9752],[406.6486,366.0776],[406.3633,364.8491],[405.973,362.6474],[404.165,360.0282],[397.0503,358.357],[390.7557,362.6634],[387.6555,369.1621],[389.6573,375.7865],[392.7905,377.4842],[395.2769,377.725],[396.5241,377.7705],[396.6497,379.1076],[397.1555,381.8836]],"i":[[-0.932266666666635,-0.8322666666666692],[-2.6867333333333363,0.6169333333333498],[-1.9870000000000232,2.2257999999999925],[-0.2349999999999568,2.4916000000000054],[2.4705333333333215,2.205533333333335],[1.1632000000000176,0.22173333333330447],[0.9692666666666696,-0.07706666666666706],[0,0],[0.06200000000001182,0.7045999999999708],[0.21019999999998618,0.5855333333333306],[0.8623333333333107,0.769866666666644],[2.645533333333333,-0.7584666666667204],[1.9870000000000232,-2.2257333333333804],[0.39186666666665815,-2.456266666666636],[-1.7830000000000155,-1.591733333333309],[-1.144933333333313,-0.289133333333325],[-0.9159999999999968,0.04086666666665906],[-0.0699333333333243,-0.06246666666669398],[-0.06040000000001555,-0.8706000000000245],[-0.27846666666670217,-0.8140000000000214]],"o":[[2.132533333333356,1.9037999999999897],[2.3804666666666776,-0.5553333333332944],[2.2991333333333728,-2.575400000000002],[0.2927999999999997,-2.837799999999959],[-0.8157333333333554,-0.7282666666666842],[-0.8052666666666823,-0.15346666666670217],[-0.81486666666666,0.06826666666671599],[-0.12819999999999254,-0.11439999999998918],[-0.05000000000001137,-0.8822666666666805],[-0.34300000000001774,-0.9762666666666746],[-2.0976,-1.872600000000034],[-2.2094000000000165,0.6451999999999884],[-1.6749333333333425,1.876199999999983],[-0.44846666666666124,2.8245333333333633],[0.9438666666666791,0.8426666666666733],[0.7416000000000054,0.20139999999997826],[0.7615333333333183,-0.032133333333320024],[0.023333333333368955,0.020799999999951524],[0.0587333333333504,1.0366666666666902],[0.42166666666668107,1.1931333333333214]]}}},{"ty":"sh","ks":{"a":0,"k":{"c":true,"v":[[393.8706,371.0669],[393.1201,368.952],[394.0957,366.8388],[398.343,366.233],[397.7697,371.3438],[397.5412,371.7052],[395.696,371.9425]],"i":[[0.4311999999999898,0.38486666666671],[-0.09399999999999409,0.8793333333333635],[-0.551400000000001,0.6175999999999817],[-1.3750666666666689,-1.2275999999999954],[1.2912000000000035,-2.595733333333328],[0.06246666666669398,-0.0699333333333243],[0.8868666666666627,0.2263333333333435]],"o":[[-0.5943333333333385,-0.5305999999999926],[0.09899999999998954,-0.7912000000000035],[1.4564666666666426,-1.631466666666654],[0.9089999999999918,0.8114666666666608],[-0.08986666666663723,0.17099999999999227],[-0.34326666666669325,0.38453333333330875],[-0.7857333333333258,-0.19886666666667452]]}}},{"ty":"sh","ks":{"a":0,"k":{"c":true,"v":[[405.4178,378.3286],[405.3938,373.2185],[405.9861,371.9568],[408.0261,371.6421],[410.0831,372.5046],[411.1925,375.0971],[410.0971,377.7315]],"i":[[1.5382666666666296,1.373199999999997],[-1.1143333333333203,2.3976000000000113],[-0.041600000000016735,0.04660000000001219],[-0.9958666666666431,-0.19806666666664796],[-0.4428666666667027,-0.3953333333333262],[0.041133333333334576,-1.0312666666666814],[0.7074666666666758,-0.7924666666666553]],"o":[[-1.1303333333333399,-1.0091333333332955],[0.35326666666668416,-0.7945333333333338],[0.36413333333331366,-0.40786666666662086],[0.9284666666666794,0.17966666666666242],[0.7807333333333304,0.6970666666666716],[-0.022800000000017917,0.963799999999992],[-1.5812666666666928,1.7712666666666905]]}}},{"ty":"st","o":{"a":0,"k":0},"w":{"a":0,"k":0},"c":{"a":0,"k":[0,0,0,0]},"lc":3,"lj":1,"ml":1},{"ty":"fl","o":{"a":0,"k":100},"r":1,"c":{"a":0,"k":[1,1,1,1]}},{"ty":"tr","o":{"a":0,"k":100},"a":{"a":0,"k":[0,0]},"s":{"a":0,"k":[-100,100]},"p":{"a":0,"k":[-278.635,758.489]},"r":{"a":0,"k":180.02333923010465}}]},{"ty":"gr","nm":"c2 shape group","it":[{"ty":"sh","ks":{"a":0,"k":{"c":true,"v":[[455.3728,330.5341],[463.0318,338.5598],[474.0433,338.7723],[481.5165,330.7114],[481.0831,319.6178],[473.4116,311.6228],[462.4493,311.4659],[454.9486,319.4621]],"i":[[-1.5751333333333264,-3.7098666666666986],[-3.5307999999999993,-1.6406000000000063],[-3.681133333333321,1.5629333333333193],[-1.3010666666666566,3.8109333333333097],[1.5751333333333264,3.7098666666666418],[3.5330666666666843,1.6057333333333759],[3.681066666666652,-1.5629333333333193],[1.3193333333333044,-3.7678000000000225]],"o":[[1.5751999999999953,3.7098666666666418],[3.6598666666666873,1.7045999999999708],[3.681066666666709,-1.5629999999999882],[1.286200000000008,-3.6858666666666977],[-1.581266666666636,-3.724266666666665],[-3.6271333333333473,-1.6675333333333242],[-3.681133333333321,1.563000000000045],[-1.2923333333333176,3.6714666666666176]]}}},{"ty":"sh","ks":{"a":0,"k":{"c":true,"v":[[463.3749,327.1365],[463.0298,322.7262],[465.8469,319.468],[470.16,319.6733],[473.081,323.0154],[473.466,327.4597],[470.6457,330.7702],[466.3299,330.4387]],"i":[[0.6166666666666174,1.4523333333333426],[-0.39873333333338223,1.459133333333341],[-1.4523333333333426,0.6166666666666174],[-1.3943333333333499,-0.765733333333344],[-0.647199999999998,-1.5242000000000075],[0.3782666666666614,-1.4673999999999978],[1.466666666666697,-0.6227999999999838],[1.4680000000000177,0.8192666666666923]],"o":[[-0.6288000000000125,-1.4810666666666634],[0.4257333333333122,-1.555466666666689],[1.4810666666666634,-0.6288666666666813],[1.3001333333333491,0.70386666666667],[0.634933333333322,1.4954666666666867],[-0.4135333333333051,1.5842000000000098],[-1.4091999999999985,0.5982666666666887],[-1.353333333333353,-0.7491333333333046]]}}},{"ty":"st","o":{"a":0,"k":0},"w":{"a":0,"k":0},"c":{"a":0,"k":[0,0,0,0]},"lc":3,"lj":1,"ml":1},{"ty":"fl","o":{"a":0,"k":100},"r":1,"c":{"a":0,"k":[1,1,1,1]}},{"ty":"tr","o":{"a":0,"k":100},"a":{"a":0,"k":[0,0]},"s":{"a":0,"k":[-100,100]},"p":{"a":0,"k":[-278.635,758.489]},"r":{"a":0,"k":180.02333923010465}}]},{"ty":"gr","nm":"c2 shape group","it":[{"ty":"sh","ks":{"a":0,"k":{"c":true,"v":[[482.8948,309.8375],[483.7308,310.6668],[487.8305,314.3015],[491.243,318.664],[496.2846,328.9474],[497.6892,330.4071],[501.9908,329.5463],[504.5478,328.8571],[506.2063,327.2819],[502.0188,319.5383],[496.1497,312.796],[493.1358,309.7347],[494.0334,309.2681],[499.122,308.1738],[504.2105,307.0796],[504.6363,306.3689],[503.9476,304.5849],[503.1906,302.8179],[502.2452,299.4313],[501.0743,299.0967],[498.6367,299.8768],[496.1992,300.7535],[482.8631,304.4102],[482.0171,305.7576]],"i":[[-0.40633333333329347,-1.6213333333333253],[-0.488933333333307,-0.28006666666669844],[-1.6529999999999632,-1.8403333333333194],[-0.9063333333332935,-1.3671999999999684],[-1.172866666666664,-3.522800000000018],[-0.6175999999999817,-0.02233333333333576],[-2.3941333333332864,0.6000666666666916],[-0.265199999999993,0.09866666666670199],[0.14813333333330547,0.5909333333333393],[2.244733333333329,2.9803999999999746],[2.3466666666666356,2.423400000000015],[-0.00760000000002492,-0.030333333333317114],[-0.6363999999999805,0.15953333333334285],[-2.2711333333333528,0.44846666666666124],[-1.1212666666667133,0.28106666666661795],[0.09499999999997044,0.37886666666668134],[0.34899999999998954,0.7499333333333311],[0.10626666666667006,0.2954000000000292],[0.39879999999999427,1.5909999999999513],[0.6818666666666786,-0.1709333333333234],[0.9885999999999626,-0.36053333333330784],[0.2689333333333366,-0.08353333333332102],[6.333800000000053,-1.587600000000009],[-0.11786666666665724,-0.7274000000000456]],"o":[[0.06840000000005375,0.2728000000000179],[1.0801333333333218,0.5827999999999633],[1.3686666666666838,1.5411333333333346],[2.188199999999995,3.33280000000002],[0.3188000000000102,0.9508000000000152],[0.47359999999997626,0.026199999999960255],[1.4394666666666467,-0.36079999999998336],[1.2538000000000125,-0.4592000000000098],[-0.5469333333333566,-2.1820000000000164],[-1.5660666666666998,-2.0714666666666517],[-2.016866666666658,-2.071199999999976],[-0.038000000000010914,-0.15153333333330465],[1.1212666666667133,-0.2810666666666748],[2.271066666666627,-0.4484000000000492],[0.3788666666666245,-0.0949333333333584],[-0.1101333333333514,-0.43940000000003465],[-0.398399999999981,-0.8825999999999681],[-0.2314666666666767,-0.6667333333333545],[-0.09873333333331402,-0.39400000000000546],[-0.6364666666666494,0.15953333333334285],[-1.3560666666666634,0.5009333333333075],[-2.5569333333333475,0.8502000000000294],[-0.6818666666666218,0.1708666666666545],[0.17879999999996699,1.0985999999999763]]}}},{"ty":"st","o":{"a":0,"k":0},"w":{"a":0,"k":0},"c":{"a":0,"k":[0,0,0,0]},"lc":3,"lj":1,"ml":1},{"ty":"fl","o":{"a":0,"k":100},"r":1,"c":{"a":0,"k":[1,1,1,1]}},{"ty":"tr","o":{"a":0,"k":100},"a":{"a":0,"k":[0,0]},"s":{"a":0,"k":[-100,100]},"p":{"a":0,"k":[-278.635,758.489]},"r":{"a":0,"k":180.02333923010465}}]},{"ty":"gr","nm":"c2 shape group","it":[{"ty":"sh","ks":{"a":0,"k":{"c":true,"v":[[557.9181,310.6082],[560.0669,321.4918],[569.2404,327.5861],[579.8739,324.8015],[585.4676,315.2117],[583.2917,304.3474],[574.1297,298.3263],[563.5079,301.0415]],"i":[[0.6642000000000507,-3.9752666666666414],[-2.09680000000003,-3.280466666666655],[-3.9443999999999733,-0.6591333333333296],[-3.1445333333333565,2.5155333333333374],[-0.6642666666666628,3.9752666666666414],[2.117399999999975,3.252200000000016],[3.944466666666699,0.6591333333333296],[3.1368000000001075,-2.4692666666666696]],"o":[[-0.6642666666666628,3.9752666666666414],[2.171266666666611,3.403733333333321],[3.944466666666699,0.6591333333333296],[3.064866666666603,-2.4179333333333375],[0.6668000000000802,-3.990666666666641],[-2.163533333333362,-3.3549333333333493],[-3.9443999999999733,-0.6591333333333296],[-3.0623333333332994,2.402533333333338]]}}},{"ty":"sh","ks":{"a":0,"k":{"c":true,"v":[[566.4926,312.041],[568.5706,308.1357],[572.6969,306.9008],[576.2246,309.3909],[576.893,313.7789],[574.8304,317.7343],[570.6732,319.0115],[567.2111,316.4136]],"i":[[-0.26006666666671663,1.5561999999999898],[-1.1201333333333423,1.0165333333333706],[-1.5561999999999898,-0.2599999999999909],[-0.7647333333333108,-1.394866666666644],[0.27293333333329883,-1.6332666666666569],[1.1073333333332585,-1.034466666666674],[1.5716666666667152,0.26266666666668925],[0.7981333333333396,1.4796666666666738]],"o":[[0.26519999999993615,-1.586999999999989],[1.1946666666666488,-1.0832666666666455],[1.5870666666666011,0.265199999999993],[0.7185333333333119,1.292066666666699],[-0.2677333333333536,1.6024666666666576],[-1.199799999999982,1.1141333333333137],[-1.5099333333332652,-0.25226666666668507],[-0.7390666666666448,-1.3588666666666427]]}}},{"ty":"st","o":{"a":0,"k":0},"w":{"a":0,"k":0},"c":{"a":0,"k":[0,0,0,0]},"lc":3,"lj":1,"ml":1},{"ty":"fl","o":{"a":0,"k":100},"r":1,"c":{"a":0,"k":[1,1,1,1]}},{"ty":"tr","o":{"a":0,"k":100},"a":{"a":0,"k":[0,0]},"s":{"a":0,"k":[-100,100]},"p":{"a":0,"k":[-278.635,758.489]},"r":{"a":0,"k":180.02333923010465}}]},{"ty":"gr","nm":"c2 shape group","it":[{"ty":"sh","ks":{"a":0,"k":{"c":true,"v":[[588.5523,319.9835],[589.1636,328.8452],[596.4134,334.2713],[606.3193,333.7228],[612.5147,325.8956],[611.1639,312.6393],[600.5367,304.2137],[599.7331,304.5314],[596.3768,308.7276],[596.9999,310.0828],[601.5995,312.4132],[604.6338,316.3354],[604.6711,317.0175],[604.4924,317.1046],[604.1907,316.9014],[600.28,314.5855],[593.2096,314.6746]],"i":[[0.8814000000000988,-2.5547333333333313],[-1.5487333333333027,-2.599933333333354],[-3.3817333333333863,-1.1666666666666856],[-2.9711333333333414,1.6189333333333593],[-1.263466666666659,3.662333333333322],[2.4951333333333423,4.215333333333376],[4.710799999999949,1.6252000000000066],[0.2551333333333332,-0.30860000000001264],[0.0968000000000302,-0.28059999999999263],[-0.6498000000000275,-0.22419999999999618],[-1.3238666666667314,-0.9524666666666803],[-0.2966666666666242,-1.391333333333307],[0.04586666666671135,-0.1328666666666436],[0.0886000000000422,0.030533333333323753],[0.14199999999993906,0.11506666666667797],[1.5210666666666839,0.5247333333333017],[2.1440666666666175,-0.9458666666666318]],"o":[[-1.1411999999999125,3.307866666666655],[1.4514666666666471,2.4507333333333463],[3.6327999999999747,1.2532666666666614],[2.866800000000012,-1.5558000000000334],[1.594600000000014,-4.622199999999964],[-2.3740000000000236,-3.991866666666681],[-0.2805999999999358,-0.0968000000000302],[-2.140733333333287,2.516866666666658],[-0.23439999999993688,0.679266666666706],[1.7425333333333128,0.6011333333333369],[1.7261999999999489,1.2234666666666385],[0.07073333333335086,0.32186666666666497],[-0.030533333333323753,0.08859999999998536],[-0.05913333333330684,-0.02039999999999509],[-1.0860666666666248,-1.019200000000012],[-2.569533333333311,-0.8864666666666494],[-2.2234666666666953,0.9845333333333315]]}}},{"ty":"sh","ks":{"a":0,"k":{"c":true,"v":[[596.1417,322.701],[598.0586,320.4497],[600.9834,320.3062],[603.4161,322.2361],[603.5844,325.2687],[601.6675,327.8793],[598.4859,328.1202],[596.0778,325.9756]],"i":[[-0.41780000000005657,1.2108666666666181],[-0.9162000000000035,0.4523333333333426],[-1.0336666666665906,-0.35660000000001446],[-0.49946666666664896,-0.8994000000000142],[0.3872000000000071,-1.1223333333333585],[0.8601999999999634,-0.5295333333333474],[1.1961999999999762,0.4126666666666665],[0.40926666666666733,1.0170666666666648]],"o":[[0.36173333333329083,-1.0485333333333529],[0.9162000000000035,-0.4522666666666737],[1.1223333333333585,0.3872000000000071],[0.4994000000000369,0.8993999999999573],[-0.41773333333333085,1.2108666666666181],[-0.9248666666666168,0.5732666666666546],[-1.1961333333333641,-0.4126666666666665],[-0.3752000000000635,-0.9721999999999866]]}}},{"ty":"st","o":{"a":0,"k":0},"w":{"a":0,"k":0},"c":{"a":0,"k":[0,0,0,0]},"lc":3,"lj":1,"ml":1},{"ty":"fl","o":{"a":0,"k":100},"r":1,"c":{"a":0,"k":[1,1,1,1]}},{"ty":"tr","o":{"a":0,"k":100},"a":{"a":0,"k":[0,0]},"s":{"a":0,"k":[-100,100]},"p":{"a":0,"k":[-278.635,758.489]},"r":{"a":0,"k":180.02333923010465}}]},{"ty":"gr","nm":"c2 shape group","it":[{"ty":"sh","ks":{"a":0,"k":{"c":true,"v":[[661.9623,354.5371],[657.4228,364.6593],[661.3838,374.9356],[671.6695,378.8118],[681.7781,374.2218],[686.2844,364.0996],[682.2905,353.8897],[672.0543,349.9636]],"i":[[2.8403999999999314,-2.859333333333325],[0.18593333333330975,-3.8888000000000034],[-2.837199999999939,-2.818333333333328],[-4.019999999999982,0.23426666666665596],[-2.8403999999999314,2.859266666666656],[-0.15279999999995653,3.8776666666666415],[2.837133333333327,2.818333333333328],[3.9869999999999663,-0.20099999999996498]],"o":[[-2.840400000000045,2.859333333333325],[-0.1965333333333774,4.032533333333333],[2.837133333333327,2.818399999999997],[3.8986666666667134,-0.2007333333333463],[2.8514000000000124,-2.8704666666666867],[0.1745333333333292,-3.988266666666675],[-2.837133333333327,-2.818399999999997],[-3.8876000000000204,0.18966666666671017]]}}},{"ty":"sh","ks":{"a":0,"k":{"c":true,"v":[[668.1298,360.6638],[672.0832,358.6789],[676.1638,360.0572],[677.6023,364.1284],[675.6106,368.0951],[671.6407,370.1297],[667.5105,368.7681],[666.1878,364.6468]],"i":[[-1.1119333333333543,1.1193333333333726],[-1.5016666666666652,0.18173333333334085],[-1.1193333333334294,-1.1119333333333543],[0.18253333333325372,-1.5801999999999907],[1.16700000000003,-1.1748000000000047],[1.5015999999999394,-0.2038000000000011],[1.1304000000000087,1.1229999999999905],[-0.20433333333335213,1.6686666666666952]],"o":[[1.1339333333332888,-1.1415333333333137],[1.6010666666666111,-0.1930666666666525],[1.1415333333333137,1.1339333333333457],[-0.16079999999999472,1.4696666666666829],[-1.1449999999999818,1.1526000000000067],[-1.6230666666666593,0.2152666666666505],[-1.0861333333333505,-1.07886666666667],[0.1827333333333172,-1.5360000000000014]]}}},{"ty":"st","o":{"a":0,"k":0},"w":{"a":0,"k":0},"c":{"a":0,"k":[0,0,0,0]},"lc":3,"lj":1,"ml":1},{"ty":"fl","o":{"a":0,"k":100},"r":1,"c":{"a":0,"k":[1,1,1,1]}},{"ty":"tr","o":{"a":0,"k":100},"a":{"a":0,"k":[0,0]},"s":{"a":0,"k":[-100,100]},"p":{"a":0,"k":[-278.635,758.489]},"r":{"a":0,"k":180.02333923010465}}]},{"ty":"gr","nm":"c2 shape group","it":[{"ty":"sh","ks":{"a":0,"k":{"c":true,"v":[[681.0356,380.379],[680.1954,396.9832],[683.4754,400.7971],[687.0079,403.5268],[688.7471,402.3721],[690.7279,400.6346],[692.016,398.8229],[691.6675,398.5842],[686.7583,394.2485],[686.4277,388.0765],[689.7989,387.964],[692.4918,390.3785],[693.849,392.5936],[695.2063,394.8087],[696.2956,395.0285],[701.7216,390.8172],[707.1477,386.606],[707.6946,385.7856],[707.7089,384.832],[703.9415,379.517],[698.4984,372.1469],[697.69,371.954],[694.9044,374.3376],[692.9992,376.7743],[693.1702,376.9686],[697.447,382.0276],[698.8512,384.426],[696.9482,386.3098],[696.5007,386.4917],[695.5032,384.9279],[694.5057,383.3641],[688.361,378.8864]],"i":[[2.320866666666575,-1.6957333333333509],[-5.0779999999999745,-6.949933333333377],[-1.4494000000000824,-1.5335333333333097],[-0.47393333333332066,0.17213333333336323],[-0.9586000000000467,0.7004666666666708],[-0.7907999999999902,0.7712666666666905],[0.15666666666663787,0.21440000000001191],[0.186266666666711,0.09606666666667252],[1.410066666666694,1.9298000000000002],[-1.8163333333333185,1.327066666666667],[-1.2509999999999764,-0.6530666666666889],[-0.8110000000000355,-1.1099999999999568],[-0.5638000000000147,-1.0100666666666598],[-0.3410000000000082,-0.466733333333309],[-0.4036666666667088,0.2949333333332902],[-2.406466666666688,1.9227999999999952],[-1.210866666666675,0.8847333333333722],[-0.12493333333338796,0.37180000000000746],[0.11540000000002237,0.2639333333333411],[2.359266666666713,3.228999999999985],[0.946866666666665,1.2428666666666572],[0.277533333333281,-0.20273333333335586],[1.1381333333332577,-1.0637333333333459],[-0.19353333333333467,-0.2648666666666486],[0,0],[-0.5161333333333005,-0.7063333333333617],[0.07759999999996126,-0.2114666666666949],[1.0469333333332997,-0.7649333333333175],[0.13440000000002783,-0.0014666666666585115],[0.43459999999993215,0.7271999999999821],[0.25806666666665024,0.3531333333333464],[2.3822666666666237,0.6390666666666789]],"o":[[-5.638133333333371,4.119533333333322],[0.7372666666666419,1.0090666666666834],[1.8810666666666975,1.9919333333333498],[0.20086666666668407,-0.06933333333330438],[0.5297333333332972,-0.38706666666666933],[1.0153999999999996,-0.9934000000000083],[-0.04606666666666115,-0.06306666666665706],[-1.8627333333333809,-0.9606666666666683],[-2.0367333333332454,-2.7875999999999976],[0.9964666666667199,-0.7280666666666775],[0.9842666666667128,0.4996666666666556],[0.3410000000000082,0.466666666666697],[0.5638666666666268,1.0100000000000477],[0.32253333333335377,0.44146666666665624],[1.210866666666675,-0.8847333333333722],[2.406533333333414,-1.9227333333333263],[0.23966666666672154,-0.17513333333334913],[0.12493333333327428,-0.37180000000000746],[-0.1523333333333312,-0.31433333333330893],[-2.6818666666666786,-3.670533333333367],[-0.26139999999998054,-0.3313333333333617],[-0.7189333333334389,0.5253333333333217],[-1.4636666666666542,1.3596000000000004],[0,0],[2.3350666666666484,2.666333333333341],[1.0137333333333345,1.3874666666666258],[-0.22173333333330447,0.49093333333331657],[-0.16393333333337523,0.11979999999999791],[-0.23040000000003147,-0.3153333333332853],[-0.4069333333333134,-0.6894000000000347],[-1.7142000000000053,-2.3460666666666725],[-2.5627333333333127,-0.7006666666666774]]}}},{"ty":"st","o":{"a":0,"k":0},"w":{"a":0,"k":0},"c":{"a":0,"k":[0,0,0,0]},"lc":3,"lj":1,"ml":1},{"ty":"fl","o":{"a":0,"k":100},"r":1,"c":{"a":0,"k":[1,1,1,1]}},{"ty":"tr","o":{"a":0,"k":100},"a":{"a":0,"k":[0,0]},"s":{"a":0,"k":[-100,100]},"p":{"a":0,"k":[-278.635,758.489]},"r":{"a":0,"k":180.02333923010465}}]},{"ty":"gr","nm":"c2 shape group","it":[{"ty":"sh","ks":{"a":0,"k":{"c":true,"v":[[723.1985,457.2728],[713.4372,462.5438],[710.3282,473.109],[716.1325,482.4433],[726.9473,484.9511],[736.6822,479.66],[739.7247,469.1274],[733.9901,459.7837]],"i":[[3.9938000000000784,-0.5409333333333279],[2.5136666666667224,-2.9730666666666252],[-0.536733333333359,-3.9628666666666845],[-3.33280000000002,-2.2600000000000477],[-3.9938000000000784,0.5409333333333279],[-2.4805999999999813,2.984333333333325],[0.536733333333359,3.9629333333332966],[3.2863333333333458,2.266266666666695]],"o":[[-3.9938666666665767,0.5409333333333279],[-2.609399999999937,3.080600000000004],[0.5367333333332454,3.9628666666666845],[3.21606666666662,2.212799999999959],[4.009333333333302,-0.5430666666666752],[2.5650666666666666,-3.0588000000000193],[-0.536733333333359,-3.9628666666666845],[-3.2006000000000085,-2.2148666666666372]]}}},{"ty":"sh","ks":{"a":0,"k":{"c":true,"v":[[724.3653,465.8874],[728.7103,466.7177],[731.1101,470.2942],[729.7746,474.4004],[725.7805,476.3364],[721.3921,475.5357],[718.9428,471.9422],[720.4007,467.8668]],"i":[[-1.5635333333333392,0.21179999999998245],[-1.3022666666666964,-0.7694666666666876],[-0.2117999999999256,-1.5634666666666703],[1.10626666666667,-1.1429999999999723],[1.6408666666667386,-0.22219999999998663],[1.3156666666666297,0.7518666666666718],[0.21386666666660403,1.5790000000000077],[-1.1774000000000342,1.1999333333333198]],"o":[[1.5943999999999505,-0.2159333333333393],[1.3880666666667594,0.8208666666666886],[0.21593333333328246,1.5944666666666762],[-1.0218666666665968,1.0684666666666658],[-1.609933333333288,0.21806666666662977],[-1.4189999999999827,-0.8166666666666629],[-0.20546666666666624,-1.516999999999996],[1.079533333333302,-1.1077999999999975]]}}},{"ty":"st","o":{"a":0,"k":0},"w":{"a":0,"k":0},"c":{"a":0,"k":[0,0,0,0]},"lc":3,"lj":1,"ml":1},{"ty":"fl","o":{"a":0,"k":100},"r":1,"c":{"a":0,"k":[1,1,1,1]}},{"ty":"tr","o":{"a":0,"k":100},"a":{"a":0,"k":[0,0]},"s":{"a":0,"k":[-100,100]},"p":{"a":0,"k":[-278.635,758.489]},"r":{"a":0,"k":180.02333923010465}}]},{"ty":"gr","nm":"c2 shape group","it":[{"ty":"sh","ks":{"a":0,"k":{"c":true,"v":[[718.1623,489.101],[717.6771,489.6732],[717.6201,490.8437],[717.6649,491.7358],[716.7253,492.6231],[715.0292,492.5043],[713.333,492.3855],[712.4924,493.0881],[712.4483,501.5964],[712.9398,502.0324],[714.6815,501.7892],[716.7043,501.554],[717.4524,502.4428],[717.2244,507.1364],[716.9964,511.83],[718.4184,513.7461],[720.6547,513.8335],[722.8909,513.9209],[724.3873,513.237],[730.3858,508.4154],[738.7526,503.5678],[741.7562,501.8252],[742.1745,501.1339],[741.4308,497.6315],[740.7011,493.6371],[739.7622,492.8601],[737.004,492.9922],[734.2223,493.1236],[724.3612,492.8416],[724.546,491.2997],[724.7301,489.7812],[724.2041,489.3207],[722.7267,489.3371],[721.226,489.3528],[719.6941,489.2269]],"i":[[0.34353333333331193,0.009866666666653146],[0.08920000000000528,-0.38813333333331457],[-0.016933333333327028,-0.5006000000000199],[-0.0030666666666547826,0.10926666666665596],[0.6090000000000373,0.017466666666621222],[0.7559999999999718,0.06853333333333467],[0.3748000000000502,0.010666666666679703],[0.013866666666672245,-0.4840666666666493],[-0.12466666666671244,-0.28486666666668725],[-0.2029333333333625,-0.005799999999965166],[-0.9268666666666832,0.16879999999997608],[-0.4216000000000122,-0.012066666666612491],[0.01653333333331375,-0.5777999999999679],[0.1221333333334087,-2.082866666666689],[0.02993333333336068,-1.046199999999999],[-0.9837333333333618,-0.02813333333335777],[-0.9911333333333232,-0.04399999999998272],[-0.49966666666671244,-0.014266666666685524],[-0.5291333333333341,0.4693333333333385],[-1.4977999999999838,1.0042666666666946],[-4.860866666666652,2.7521333333333473],[-1.2733333333334258,0.8074666666666985],[-0.007133333333285918,0.24986666666666224],[0.5065333333333228,1.9601999999999862],[-0.02013333333331957,0.7027333333333559],[0.6401999999999362,0.018333333333373503],[1.2297999999999547,-0.10546666666670035],[0.6245999999999867,0.0178666666666345],[0,0],[-0.11473333333333358,0.7312000000000012],[-0.010266666666666424,0.3591333333333182],[0.35913333333326136,0.010333333333335304],[0.6570000000000391,-0.020266666666714173],[0.34353333333331193,0.009799999999984266],[0.6777333333333218,0.07406666666668116]],"o":[[-0.2342666666667128,-0.006666666666660603],[-0.05493333333333794,0.27973333333335404],[0.026799999999980173,0.7040000000000077],[-0.01740000000006603,0.6089999999999804],[-0.3747333333333245,-0.010666666666679703],[-0.7559999999999718,-0.06853333333333467],[-0.5465333333332865,-0.015666666666618312],[-0.1540666666666084,5.387333333333345],[0.12473333333332448,0.28486666666668725],[0.2342666666667128,0.006666666666660603],[0.9269333333332952,-0.16886666666664496],[0.5152666666666619,0.014733333333367682],[-0.029866666666634956,1.046199999999999],[-0.12206666666668298,2.082866666666689],[-0.035733333333269,1.2492666666666423],[0.4997333333333245,0.014266666666685524],[0.9911333333333232,0.04399999999998272],[0.4684666666666999,0.01340000000004693],[2.50120000000004,-2.2101333333333173],[0.7169999999999845,-0.47959999999994807],[0.7290666666666539,-0.3542666666666605],[0.2717333333333727,-0.21100000000001273],[0.010733333333405426,-0.3747333333333245],[-0.5066000000000486,-1.960200000000043],[0.014266666666685524,-0.4996666666666556],[-0.6090000000000373,-0.017400000000009186],[-1.2298666666666804,0.1054666666666435],[0,0],[0.008466666666663514,-0.29673333333334995],[0.11246666666659166,-0.6531999999999698],[0.008466666666663514,-0.29666666666668107],[-0.3279333333333625,-0.00933333333335895],[-0.6569333333333134,0.02026666666665733],[-0.34353333333331193,-0.009866666666653146],[-0.6776666666667097,-0.07406666666668116]]}}},{"ty":"sh","ks":{"a":0,"k":{"c":true,"v":[[732.6346,501.0954],[732.7705,501.2634],[732.4539,501.6763],[727.543,504.5365],[722.9687,507.9219],[723.4842,501.3729],[728.108,501.1769]],"i":[[-1.0774666666666235,-0.030799999999999272],[0.003133333333380506,-0.10926666666665596],[0.20699999999999363,-0.13473333333337223],[1.6370000000000573,-0.9533999999999878],[1.1569333333333134,-1.1077333333333286],[-0.3190666666666857,3.507199999999955],[-2.4569999999999936,0.11726666666669416]],"o":[[0.09373333333337541,0.0027333333333103838],[-0.004066666666631136,0.1405333333333374],[-1.6369333333333316,0.9533999999999878],[-1.8926000000000158,1.1492000000000075],[0.024599999999963984,-0.8588000000000306],[0.625533333333351,-0.013399999999990087],[1.94026666666673,-0.0851333333333173]]}}},{"ty":"st","o":{"a":0,"k":0},"w":{"a":0,"k":0},"c":{"a":0,"k":[0,0,0,0]},"lc":3,"lj":1,"ml":1},{"ty":"fl","o":{"a":0,"k":100},"r":1,"c":{"a":0,"k":[1,1,1,1]}},{"ty":"tr","o":{"a":0,"k":100},"a":{"a":0,"k":[0,0]},"s":{"a":0,"k":[-100,100]},"p":{"a":0,"k":[-278.635,758.489]},"r":{"a":0,"k":180.02333923010465}}]},{"ty":"gr","nm":"c2 shape group","it":[{"ty":"sh","ks":{"a":0,"k":{"c":true,"v":[[710.2436,574.2648],[699.2695,572.6435],[690.4545,579.2451],[689.516,590.1965],[696.6775,598.6793],[707.6425,600.2687],[716.3847,593.6534],[717.3847,582.7361]],"i":[[3.522933333333299,1.9575333333333447],[3.793199999999956,-0.8766666666666652],[1.9423333333332948,-3.4955999999999676],[-1.316666666666606,-3.805333333333351],[-3.522933333333299,-1.9575333333333447],[-3.77346666666665,0.9055333333333238],[-1.9423333333332948,3.4955999999999676],[1.275666666666666,3.782600000000002]],"o":[[-3.522866666666687,-1.9575333333333447],[-3.9343333333332566,0.9054666666667117],[-1.9423333333332948,3.4956000000000813],[1.2513999999999896,3.6976666666666915],[3.5365333333332956,1.965133333333256],[3.8857999999999038,-0.9145999999999503],[1.9423333333332948,-3.4956000000000813],[-1.237799999999993,-3.689999999999941]]}}},{"ty":"sh","ks":{"a":0,"k":{"c":true,"v":[[706.0213,581.8636],[709.0047,585.1297],[708.7859,589.4311],[705.2581,591.9206],[700.8998,591.0805],[697.8641,587.8121],[698.0533,583.4674],[701.6608,581.0758]],"i":[[-1.3791333333333569,-0.766333333333364],[-0.5825333333333447,-1.3959333333333461],[0.766333333333364,-1.3791333333333569],[1.5703333333333376,-0.25326666666671827],[1.447400000000016,0.8042666666666491],[0.6037333333332526,1.3898666666666486],[-0.7738666666666631,1.3927999999999656],[-1.6614000000000715,0.2562666666666473]],"o":[[1.4063999999999623,0.7814666666666881],[0.6204666666666299,1.4884666666666817],[-0.7815333333333001,1.4063999999999623],[-1.4581333333333077,0.244199999999978],[-1.4200666666666848,-0.789066666666713],[-0.647733333333349,-1.5036666666666179],[0.7435999999999012,-1.3381333333333032],[1.5278666666666822,-0.2411333333333232]]}}},{"ty":"st","o":{"a":0,"k":0},"w":{"a":0,"k":0},"c":{"a":0,"k":[0,0,0,0]},"lc":3,"lj":1,"ml":1},{"ty":"fl","o":{"a":0,"k":100},"r":1,"c":{"a":0,"k":[1,1,1,1]}},{"ty":"tr","o":{"a":0,"k":100},"a":{"a":0,"k":[0,0]},"s":{"a":0,"k":[-100,100]},"p":{"a":0,"k":[-278.635,758.489]},"r":{"a":0,"k":180.02333923010465}}]},{"ty":"gr","nm":"c2 shape group","it":[{"ty":"sh","ks":{"a":0,"k":{"c":true,"v":[[689.3485,598.2285],[681.8784,596.9443],[675.6033,601.7065],[672.4291,606.5712],[670.8269,611.593],[671.217,611.7787],[673.8583,612.6222],[676.2937,613.6913],[677.1881,613.4978],[677.8693,611.3689],[679.4446,608.095],[684.6905,606.3642],[683.9475,611.3137],[682.9588,612.5038],[682.1431,613.4722],[681.1953,614.7241],[681.1888,616.027],[684.9079,618.5742],[685.8311,618.3438],[687.1234,616.3651],[688.4013,614.4048],[689.9588,613.4953],[691.7088,614.0144],[691.4077,618.8928],[687.8753,621.9318],[687.727,622.0836],[687.9269,622.8937],[689.6134,624.3889],[690.4134,625.192],[691.2238,625.9436],[695.1033,624.0972],[698.6308,620.3409],[701.5431,613.7556],[699.1796,607.3021],[691.6513,606.3589],[691.8437,601.8862]],"i":[[1.2559333333333598,0.9805999999999813],[2.70226666666656,-0.9224666666666508],[1.8747333333333245,-2.4009999999999536],[0.6740000000000919,-1.3962666666666337],[-0.41860000000008313,-0.3268666666666604],[-0.18619999999998527,-0.06613333333336868],[-1.1706666666666479,-0.3790000000000191],[-1.0910666666666202,-0.4555333333332783],[-0.20193333333327246,0.2586000000000013],[-0.48299999999994725,1.456199999999967],[-0.5672666666666828,0.7264666666666244],[-1.6129333333333307,-1.2594000000000278],[1.7882000000000744,-2.290200000000027],[0.4188000000000329,-0.4855999999999767],[0.125,-0.15999999999996817],[0.04540000000008604,-0.08346666666670899],[-0.3570666666666966,-0.27880000000004657],[-0.5955999999999904,-0.2271333333333132],[-0.23073333333331902,0.2954666666666981],[-0.5346666666665669,0.9004666666666026],[-0.3172666666666828,0.4063333333333503],[-0.624933333333388,0.07686666666666042],[-0.5417999999999665,-0.4230000000000018],[1.653599999999983,-2.1177999999999884],[1.6627333333333354,-1.139533333333361],[0.038466666666749916,-0.04926666666676738],[-0.2582000000001017,-0.37999999999999545],[-0.6263999999999896,-0.5683999999999969],[-0.3952000000000453,-0.4076666666666142],[-0.22166666666669244,-0.17300000000000182],[-1.9338000000000193,1.7404666666666344],[-1.0190666666666175,1.3052000000000135],[-0.30713333333335413,2.2970666666666375],[1.9577333333332945,1.528599999999983],[2.765666666666675,-1.1305999999999585],[0.4076000000000022,1.4578666666666322]],"o":[[-2.2777999999999565,-1.778599999999983],[-2.3086666666666815,0.7738000000000511],[-1.442133333333345,1.8468666666666422],[-1.4867333333332908,3.021000000000072],[0.07386666666661768,0.05766666666670517],[0.5901999999999816,0.18333333333339397],[0.5325333333333901,0.25720000000001164],[0.3943333333334067,0.12960000000009586],[-0.028866666666658602,0.03693333333330884],[0.4829333333333352,-1.456133333333355],[1.884333333333302,-2.4132666666666864],[1.2928666666666686,1.0094666666667536],[-0.24033333333329665,0.30779999999992924],[-0.4188000000000329,0.4856000000000904],[-0.586466666666638,0.7511333333333141],[-0.3614000000000033,0.5897999999999683],[1.883799999999951,1.4710000000000036],[0.3847333333333154,0.141866666666715],[0.3268666666666604,-0.41866666666669516],[0.5346666666666806,-0.9005333333333283],[0.4134000000000242,-0.5294666666667354],[0.6248666666666622,-0.07693333333338614],[1.4528666666666368,1.1344666666666399],[-0.6921999999999571,0.8864666666667063],[-0.06039999999995871,0.051933333333295195],[-0.12493333333338796,0.1600666666666939],[0.49793333333332157,0.42840000000001055],[0.1381333333333714,0.12773333333336723],[0.3185999999999467,0.32806666666658657],[0.652533333333281,0.5095333333333656],[1.3326000000000704,-1.1989999999999554],[1.6344000000000278,-2.0931333333334123],[0.3820666666666739,-2.7737333333333254],[-2.2531999999999925,-1.7594000000000278],[0.5358666666667204,-1.5239333333332752],[-0.40753333333339015,-1.457866666666746]]}}},{"ty":"st","o":{"a":0,"k":0},"w":{"a":0,"k":0},"c":{"a":0,"k":[0,0,0,0]},"lc":3,"lj":1,"ml":1},{"ty":"fl","o":{"a":0,"k":100},"r":1,"c":{"a":0,"k":[1,1,1,1]}},{"ty":"tr","o":{"a":0,"k":100},"a":{"a":0,"k":[0,0]},"s":{"a":0,"k":[-100,100]},"p":{"a":0,"k":[-278.635,758.489]},"r":{"a":0,"k":180.02333923010465}}]},{"ty":"gr","nm":"c2 shape group","it":[{"ty":"sh","ks":{"a":0,"k":{"c":true,"v":[[623.4458,663.4808],[615.9266,655.324],[604.9205,654.9213],[597.3092,662.8519],[597.5508,673.9513],[605.083,682.0776],[616.041,682.4239],[623.6787,674.5585]],"i":[[1.5108666666666295,3.736533333333341],[3.5020000000000664,1.7013333333333094],[3.7075333333333447,-1.4991333333333614],[1.3666666666666742,-3.787933333333399],[-1.5108000000000175,-3.736533333333341],[-3.50473333333332,-1.666533333333291],[-3.7075333333333447,1.4991333333333614],[-1.384200000000078,3.7444666666666535]],"o":[[-1.5107999999999038,-3.736533333333341],[-3.6298666666666577,-1.7676000000000158],[-3.7075333333333447,1.4991333333333614],[-1.3497333333333472,3.663066666666623],[1.5167333333333772,3.75100000000009],[3.5978000000000065,1.7300000000000182],[3.7075999999999567,-1.4991333333333614],[1.3555999999999813,-3.6485999999999876]]}}},{"ty":"sh","ks":{"a":0,"k":{"c":true,"v":[[615.3862,666.7397],[615.6551,671.1553],[612.7822,674.3643],[608.4733,674.0845],[605.6104,670.6925],[605.3023,666.2422],[608.1794,662.9809],[612.4887,663.3869]],"i":[[-0.5914000000000215,-1.4628000000000156],[0.42393333333336614,-1.4520666666666102],[1.4627333333334036,-0.5914666666666335],[1.380866666666634,0.7896666666666761],[0.6207333333333054,1.535133333333306],[-0.4035999999999831,1.4606666666667252],[-1.477266666666651,0.5973333333332675],[-1.4535999999999376,-0.8445333333332883]],"o":[[0.6032000000000153,1.4916666666666742],[-0.45253333333323553,1.547866666666664],[-1.4917333333334,0.6031333333334032],[-1.2878666666666732,-0.7262000000000626],[-0.6090000000000373,-1.5061999999999216],[0.44079999999996744,-1.5768666666666604],[1.4192666666666582,-0.5738666666667314],[1.3402666666667074,0.7723999999999478]]}}},{"ty":"st","o":{"a":0,"k":0},"w":{"a":0,"k":0},"c":{"a":0,"k":[0,0,0,0]},"lc":3,"lj":1,"ml":1},{"ty":"fl","o":{"a":0,"k":100},"r":1,"c":{"a":0,"k":[1,1,1,1]}},{"ty":"tr","o":{"a":0,"k":100},"a":{"a":0,"k":[0,0]},"s":{"a":0,"k":[-100,100]},"p":{"a":0,"k":[-278.635,758.489]},"r":{"a":0,"k":180.02333923010465}}]},{"ty":"gr","nm":"c2 shape group","it":[{"ty":"sh","ks":{"a":0,"k":{"c":true,"v":[[592.1452,667.6712],[591.6737,666.1203],[591.1969,664.5464],[590.7831,662.8262],[590.3642,661.0831],[589.4806,660.6827],[587.4308,661.6036],[579.7643,663.8212],[574.4412,664.8231],[569.1639,665.8146],[568.6306,666.5361],[568.8108,668.9219],[568.8453,671.7251],[570.9358,672.0443],[574.0017,672.2146],[579.8455,676.0562],[584.2045,680.979],[583.6463,683.9766],[581.098,685.7193],[577.2987,685.8113],[574.4616,685.0605],[573.0671,684.6317],[572.7043,686.636],[573.0561,688.7187],[572.9929,690.0304],[572.9879,691.2809],[573.5058,691.7642],[579.0608,692.74],[584.7237,692.1777],[591.556,688.6114],[593.5621,681.4536],[582.3056,670.4773],[591.6512,668.6721]],"i":[[0.12773333333336723,0.563733333333289],[0.23493333333328792,0.6835333333332301],[0.08286666666663223,0.3656666666666979],[0.19306666666670935,0.7812000000000126],[0.08626666666668825,0.38093333333335977],[0.5027333333333672,-0.11393333333330702],[1.1836666666666815,-0.5725333333333538],[3.7935999999999694,-0.8595333333333883],[2.375599999999963,-0.40213333333326773],[1.1426666666666279,-0.2589333333334025],[-0.040599999999926695,-0.39126666666663823],[-0.048466666666627134,-1.0621999999999616],[-0.051799999999957436,-0.22853333333330283],[-1.317733333333308,0.12239999999997053],[-0.5059999999999718,-0.2537333333333436],[-2.063666666666677,-1.6147333333333336],[-0.2830666666667412,-1.2493333333333112],[0.6172000000000253,-0.9167333333333545],[1.081666666666706,-0.2451333333333423],[1.3139999999999645,0.21480000000008204],[1.0148666666666486,0.3787333333333436],[0.07613333333335959,-0.017266666666614583],[-0.2761333333332914,-1.2187999999999874],[-0.02053333333333285,-0.4438666666666222],[0.056533333333391056,-0.6695333333333338],[-0.05866666666668152,-0.25900000000001455],[-0.3003999999999678,-0.1241333333333614],[-2.2351333333333514,-0.0382000000000744],[-1.7825333333333901,0.4038666666666586],[-1.6602000000000317,1.7216666666666924],[0.6247999999999365,2.757600000000025],[6.672400000000039,3.6458000000000084],[-2.239599999999996,0.5074666666666872]],"o":[[-0.07939999999996417,-0.350400000000036],[-0.23500000000001364,-0.6835999999999558],[-0.08280000000002019,-0.36559999999997217],[-0.19299999999998363,-0.7811333333332868],[-0.08633333333330029,-0.38086666666663405],[-0.18286666666665496,0.04140000000006694],[-1.3174000000000206,0.6188666666665767],[-1.1731333333333396,0.2658000000000129],[-2.375533333333351,0.4020666666666557],[-0.3961333333332959,0.08973333333335631],[0.07166666666671517,0.5283333333333076],[-0.02879999999993288,1.6402666666666619],[0.07593333333340979,0.3351999999999862],[1.5379333333333989,-0.14020000000004984],[1.8321999999999434,0.9463333333333139],[2.6229333333333216,2.03253333333339],[0.24506666666661658,1.0816666666665924],[-0.6172000000000253,0.9166666666666288],[-1.2188666666667132,0.27613333333340506],[-0.8765333333334411,-0.12180000000000746],[-0.8535333333333028,-0.30313333333333503],[-0.5179999999999154,0.11739999999997508],[0.21400000000005548,0.9446000000000367],[0.014400000000023283,0.2049333333333152],[-0.06200000000001182,0.5746666666666442],[0.044866666666735,0.1980666666667048],[1.4681999999999107,0.6123333333333676],[1.9927333333333763,0.028999999999996362],[2.8946666666666943,-0.6558666666666113],[1.9621999999999389,-2.0142666666666855],[-0.8319333333332679,-3.67173333333335],[3.990799999999922,-0.6960000000000264],[0.45706666666671936,-0.10353333333330283]]}}},{"ty":"st","o":{"a":0,"k":0},"w":{"a":0,"k":0},"c":{"a":0,"k":[0,0,0,0]},"lc":3,"lj":1,"ml":1},{"ty":"fl","o":{"a":0,"k":100},"r":1,"c":{"a":0,"k":[1,1,1,1]}},{"ty":"tr","o":{"a":0,"k":100},"a":{"a":0,"k":[0,0]},"s":{"a":0,"k":[-100,100]},"p":{"a":0,"k":[-278.635,758.489]},"r":{"a":0,"k":180.02333923010465}}]},{"ty":"gr","nm":"c2 shape group","it":[{"ty":"sh","ks":{"a":0,"k":{"c":true,"v":[[498.7625,677.9657],[498.1166,666.8909],[489.8591,659.6036],[478.9455,660.9133],[472.0974,669.6515],[472.7727,680.7108],[481.0287,687.924],[491.9214,686.6814]],"i":[[-1.1997333333333131,3.8476000000000568],[1.630266666666671,3.535533333333319],[3.817799999999977,1.1903999999999542],[3.457933333333358,-2.063533333333339],[1.1997333333333131,-3.847666666666669],[-1.6545333333332906,-3.5103333333332785],[-3.817799999999977,-1.1903999999999542],[-3.443933333333348,2.018799999999942]],"o":[[1.199666666666701,-3.847666666666669],[-1.6872000000000185,-3.6678000000000566],[-3.817799999999977,-1.1904000000000678],[-3.365666666666641,1.977800000000002],[-1.2043333333332953,3.8625333333333174],[1.686200000000042,3.618400000000065],[3.817866666666646,1.1904000000000678],[3.36099999999999,-1.9628666666666277]]}}},{"ty":"sh","ks":{"a":0,"k":{"c":true,"v":[[490.4632,675.3779],[487.8725,678.9637],[483.6165,679.6248],[480.461,676.6773],[480.3967,672.2392],[482.979,668.6017],[487.2714,667.9029],[490.3472,670.9482]],"i":[[0.4696666666666829,-1.5061999999999216],[1.248199999999997,-0.8544666666666672],[1.5062000000000353,0.469600000000014],[0.5676000000000272,1.48599999999999],[-0.49286666666665724,1.5808000000000675],[-1.2379333333333307,0.87399999999991],[-1.5212000000000216,-0.47433333333333394],[-0.5890666666666675,-1.5745333333333065]],"o":[[-0.4789333333333161,1.5360666666666702],[-1.3311333333332982,0.9103333333333694],[-1.5360666666666134,-0.47900000000004184],[-0.5357333333333258,-1.377933333333317],[0.48359999999996717,-1.5510000000000446],[1.3403999999999883,-0.9402000000000044],[1.461466666666638,0.45566666666661604],[0.5470000000000255,1.446933333333277]]}}},{"ty":"st","o":{"a":0,"k":0},"w":{"a":0,"k":0},"c":{"a":0,"k":[0,0,0,0]},"lc":3,"lj":1,"ml":1},{"ty":"fl","o":{"a":0,"k":100},"r":1,"c":{"a":0,"k":[1,1,1,1]}},{"ty":"tr","o":{"a":0,"k":100},"a":{"a":0,"k":[0,0]},"s":{"a":0,"k":[-100,100]},"p":{"a":0,"k":[-278.635,758.489]},"r":{"a":0,"k":180.02333923010465}}]},{"ty":"gr","nm":"c2 shape group","it":[{"ty":"sh","ks":{"a":0,"k":{"c":true,"v":[[472.3923,655.2586],[472.3777,654.347],[471.7502,653.641],[468.7017,652.1944],[465.6531,650.7479],[464.5718,651.0712],[464.4842,651.3147],[460.1987,661.2869],[457.259,667.5949],[456.7058,668.0609],[455.5396,667.2072],[454.3522,666.3436],[453.3275,666.8226],[452.2967,668.9791],[451.256,671.1568],[451.49,672.0415],[454.7729,677.8111],[455.181,678.5442],[455.4557,678.6205],[458.1031,679.208],[460.7663,679.9837],[461.2814,679.655],[461.4467,679.1892],[465.4792,669.9263],[468.9357,662.5925]],"i":[[-0.75886666666662,1.6283333333333303],[0.13506666666665978,0.33873333333337996],[0.2832000000000221,0.13193333333333612],[1.3526666666666642,0.6476666666666233],[0.6796666666666624,0.31673333333333176],[0.19700000000000273,-0.4597333333332472],[0,0],[0.5345333333333429,-1.1468666666665968],[0,0],[0.18406666666663796,0.08580000000006294],[0.49426666666664687,0.4372000000000753],[0.29733333333336986,0.13859999999999673],[0.24420000000003483,-0.5238666666666631],[0.4628666666666845,-0.9561999999999671],[0.23093333333332566,-0.4955333333333556],[-0.2880000000000109,-0.3066000000000031],[-0.5096666666666465,-2.0126666666666324],[-0.1699333333332902,-0.07920000000001437],[-0.15479999999996608,-0.03766666666672336],[-1.174133333333316,-0.2541999999999689],[-1.1760666666666566,-0.32399999999995543],[-0.11880000000002156,0.2548666666666577],[-0.07066666666668198,0.2255999999999858],[-2.26339999999999,4.856666666666683],[-1.545533333333367,3.2608666666666295]],"o":[[0.1253333333333444,-0.26900000000000546],[-0.13513333333332866,-0.33873333333337996],[-0.6796666666666624,-0.31673333333333176],[-1.3527333333333331,-0.6476000000000113],[-0.5238666666666631,-0.244199999999978],[0,0],[-2.322466666666685,5.501266666666652],[0,0],[-0.18473333333332675,0.39646666666669717],[-0.2832000000000221,-0.13193333333322244],[-0.49426666666664687,-0.4371333333332359],[-0.43893333333329565,-0.2045333333334156],[-0.22433333333333394,0.48146666666673354],[-0.4628666666666845,0.9562666666666928],[-0.132000000000005,0.28319999999996526],[1.6789333333333047,1.8337333333332708],[0.10213333333337005,0.40953333333334285],[0.028333333333364408,0.013199999999983447],[0.5908000000000015,0.1374666666666826],[0.5994000000000028,0.1931333333333214],[0.22460000000000946,0.035733333333269],[0.039533333333338305,-0.08493333333331066],[0.42493333333328565,-1.3185999999999467],[0.7588000000000079,-1.6283333333333303],[1.545533333333367,-3.260933333333355]]}}},{"ty":"st","o":{"a":0,"k":0},"w":{"a":0,"k":0},"c":{"a":0,"k":[0,0,0,0]},"lc":3,"lj":1,"ml":1},{"ty":"fl","o":{"a":0,"k":100},"r":1,"c":{"a":0,"k":[1,1,1,1]}},{"ty":"tr","o":{"a":0,"k":100},"a":{"a":0,"k":[0,0]},"s":{"a":0,"k":[-100,100]},"p":{"a":0,"k":[-278.635,758.489]},"r":{"a":0,"k":180.02333923010465}}]},{"ty":"gr","nm":"c2 shape group","it":[{"ty":"sh","ks":{"a":0,"k":{"c":true,"v":[[313.3507,558.0196],[537.3691,485.2305],[394.8974,681.325]],"i":[[13.385099999999966,49.441400000000044],[0,0],[0,0]],"o":[[0,0],[0,0],[-39.088599999999985,-30.871500000000083]]}}},{"ty":"st","o":{"a":0,"k":0},"w":{"a":0,"k":0},"c":{"a":0,"k":[0,0,0,0]},"lc":3,"lj":1,"ml":1},{"ty":"fl","o":{"a":0,"k":100},"r":2,"c":{"a":0,"k":[0.35294117647058826,0.984313725490196,0.8784313725490196,1]}},{"ty":"tr","o":{"a":0,"k":100},"a":{"a":0,"k":[0,0]},"s":{"a":0,"k":[-100,100]},"p":{"a":0,"k":[-278.635,758.489]},"r":{"a":0,"k":180.02333923010465}}]},{"ty":"gr","nm":"c2 shape group","it":[{"ty":"sh","ks":{"a":0,"k":{"c":true,"v":[[319.7523,414.521],[537.3691,485.2305],[313.3676,558.013],[313.3507,558.0196],[305.1817,496.2843]],"i":[[-9.423299999999983,25.471299999999985],[0,0],[0,0],[0,0],[0,21.361500000000035]],"o":[[0,0],[0,0],[0,0],[-5.3267999999999915,-19.676199999999994],[0,-28.74709999999999]]}}},{"ty":"st","o":{"a":0,"k":0},"w":{"a":0,"k":0},"c":{"a":0,"k":[0,0,0,0]},"lc":3,"lj":1,"ml":1},{"ty":"fl","o":{"a":0,"k":100},"r":2,"c":{"a":0,"k":[0.33725490196078434,0.8941176470588236,0.9725490196078431,1]}},{"ty":"tr","o":{"a":0,"k":100},"a":{"a":0,"k":[0,0]},"s":{"a":0,"k":[-100,100]},"p":{"a":0,"k":[-278.635,758.489]},"r":{"a":0,"k":180.02333923010465}}]},{"ty":"gr","nm":"c2 shape group","it":[{"ty":"sh","ks":{"a":0,"k":{"c":true,"v":[[405.3136,303.472],[537.3691,485.2305],[319.7523,414.521]],"i":[[-38.719899999999996,27.265900000000045],[0,0],[0,0]],"o":[[0,0],[0,0],[16.703300000000013,-45.14910000000003]]}}},{"ty":"st","o":{"a":0,"k":0},"w":{"a":0,"k":0},"c":{"a":0,"k":[0,0,0,0]},"lc":3,"lj":1,"ml":1},{"ty":"fl","o":{"a":0,"k":100},"r":2,"c":{"a":0,"k":[0.3058823529411765,0.6823529411764706,0.9803921568627451,1]}},{"ty":"tr","o":{"a":0,"k":100},"a":{"a":0,"k":[0,0]},"s":{"a":0,"k":[-100,100]},"p":{"a":0,"k":[-278.635,758.489]},"r":{"a":0,"k":180.02333923010465}}]},{"ty":"gr","nm":"c2 shape group","it":[{"ty":"sh","ks":{"a":0,"k":{"c":true,"v":[[537.3649,260.6518],[537.3691,485.2305],[405.32,303.4805],[405.3136,303.472]],"i":[[-49.11830000000003,0.7099000000000046],[0,0],[0,0],[0,0]],"o":[[0,0],[0,0],[0,0],[37.452,-26.373099999999965]]}}},{"ty":"st","o":{"a":0,"k":0},"w":{"a":0,"k":0},"c":{"a":0,"k":[0,0,0,0]},"lc":3,"lj":1,"ml":1},{"ty":"fl","o":{"a":0,"k":100},"r":2,"c":{"a":0,"k":[0.27058823529411763,0.396078431372549,0.984313725490196,1]}},{"ty":"tr","o":{"a":0,"k":100},"a":{"a":0,"k":[0,0]},"s":{"a":0,"k":[-100,100]},"p":{"a":0,"k":[-278.635,758.489]},"r":{"a":0,"k":180.02333923010465}}]},{"ty":"gr","nm":"c2 shape group","it":[{"ty":"sh","ks":{"a":0,"k":{"c":true,"v":[[537.3691,485.2305],[671.7281,300.3012],[671.7345,300.2929],[540.8393,260.6267],[537.3649,260.6518],[537.3691,260.6706]],"i":[[0,0],[0,0],[0,0],[48.43349999999998,0],[1.156099999999924,-0.016699999999957527],[0,0]],"o":[[0,0],[0,0],[-37.440900000000056,-25.05499999999995],[-1.160099999999943,0],[0,0],[0,0]]}}},{"ty":"st","o":{"a":0,"k":0},"w":{"a":0,"k":0},"c":{"a":0,"k":[0,0,0,0]},"lc":3,"lj":1,"ml":1},{"ty":"fl","o":{"a":0,"k":100},"r":2,"c":{"a":0,"k":[0.48627450980392156,0.23921568627450981,0.9882352941176471,1]}},{"ty":"tr","o":{"a":0,"k":100},"a":{"a":0,"k":[0,0]},"s":{"a":0,"k":[-100,100]},"p":{"a":0,"k":[-278.635,758.489]},"r":{"a":0,"k":180.02333923010465}}]},{"ty":"gr","nm":"c2 shape group","it":[{"ty":"sh","ks":{"a":0,"k":{"c":true,"v":[[537.3691,485.2305],[761.1558,412.5178],[761.1717,412.5097],[671.7345,300.2929],[671.7281,300.3012]],"i":[[0,0],[0,0],[0,0],[40.361099999999965,27.00920000000002],[0,0]],"o":[[0,0],[0,0],[-17.523500000000013,-46.061800000000005],[0,0],[0,0]]}}},{"ty":"st","o":{"a":0,"k":0},"w":{"a":0,"k":0},"c":{"a":0,"k":[0,0,0,0]},"lc":3,"lj":1,"ml":1},{"ty":"fl","o":{"a":0,"k":100},"r":2,"c":{"a":0,"k":[0.7215686274509804,0.22745098039215686,0.9882352941176471,1]}},{"ty":"tr","o":{"a":0,"k":100},"a":{"a":0,"k":[0,0]},"s":{"a":0,"k":[-100,100]},"p":{"a":0,"k":[-278.635,758.489]},"r":{"a":0,"k":180.02333923010465}}]},{"ty":"gr","nm":"c2 shape group","it":[{"ty":"sh","ks":{"a":0,"k":{"c":true,"v":[[537.3691,485.2305],[767.7575,560.0885],[776.4969,496.2843],[761.1717,412.5097],[761.1558,412.5178]],"i":[[0,0],[0,0],[0,22.11160000000001],[9.902799999999957,26.03030000000001],[0,0]],"o":[[0,0],[5.694099999999935,-20.29239999999993],[0,-29.505399999999952],[0,0],[0,0]]}}},{"ty":"st","o":{"a":0,"k":0},"w":{"a":0,"k":0},"c":{"a":0,"k":[0,0,0,0]},"lc":3,"lj":1,"ml":1},{"ty":"fl","o":{"a":0,"k":100},"r":2,"c":{"a":0,"k":[0.9058823529411765,0.21568627450980393,0.9882352941176471,1]}},{"ty":"tr","o":{"a":0,"k":100},"a":{"a":0,"k":[0,0]},"s":{"a":0,"k":[-100,100]},"p":{"a":0,"k":[-278.635,758.489]},"r":{"a":0,"k":180.02333923010465}}]},{"ty":"gr","nm":"c2 shape group","it":[{"ty":"sh","ks":{"a":0,"k":{"c":true,"v":[[537.3691,485.2305],[682.3322,684.7538],[767.75,560.0858]],"i":[[0,0],[0,0],[-14.141200000000026,50.42560000000003]],"o":[[0,0],[40.773700000000076,-30.659400000000005],[0,0]]}}},{"ty":"st","o":{"a":0,"k":0},"w":{"a":0,"k":0},"c":{"a":0,"k":[0,0,0,0]},"lc":3,"lj":1,"ml":1},{"ty":"fl","o":{"a":0,"k":100},"r":2,"c":{"a":0,"k":[0.9333333333333333,0.2196078431372549,0.8313725490196079,1]}},{"ty":"tr","o":{"a":0,"k":100},"a":{"a":0,"k":[0,0]},"s":{"a":0,"k":[-100,100]},"p":{"a":0,"k":[-278.635,758.489]},"r":{"a":0,"k":180.02333923010465}}]},{"ty":"gr","nm":"c2 shape group","it":[{"ty":"sh","ks":{"a":0,"k":{"c":true,"v":[[537.3691,485.2305],[537.3649,731.9169],[540.8393,731.942],[682.3277,684.7489]],"i":[[0,0],[0,0],[-1.160099999999943,0],[-39.39830000000006,29.633499999999913]],"o":[[0,0],[1.156099999999924,0.016699999999900683],[53.095699999999965,0],[0,0]]}}},{"ty":"st","o":{"a":0,"k":0},"w":{"a":0,"k":0},"c":{"a":0,"k":[0,0,0,0]},"lc":3,"lj":1,"ml":1},{"ty":"fl","o":{"a":0,"k":100},"r":2,"c":{"a":0,"k":[0.9372549019607843,0.23137254901960785,0.6078431372549019,1]}},{"ty":"tr","o":{"a":0,"k":100},"a":{"a":0,"k":[0,0]},"s":{"a":0,"k":[-100,100]},"p":{"a":0,"k":[-278.635,758.489]},"r":{"a":0,"k":180.02333923010465}}]},{"ty":"gr","nm":"c2 shape group","it":[{"ty":"sh","ks":{"a":0,"k":{"c":true,"v":[[394.8974,681.325],[537.3691,485.2305],[537.3691,731.898],[537.3649,731.9169]],"i":[[39.29019999999997,31.03069999999991],[0,0],[0,0],[0,0]],"o":[[0,0],[0,0],[0,0],[-53.76800000000003,-0.7771000000000186]]}}},{"ty":"st","o":{"a":0,"k":0},"w":{"a":0,"k":0},"c":{"a":0,"k":[0,0,0,0]},"lc":3,"lj":1,"ml":1},{"ty":"fl","o":{"a":0,"k":100},"r":2,"c":{"a":0,"k":[0.8666666666666667,0.4392156862745098,0.45098039215686275,1]}},{"ty":"tr","o":{"a":0,"k":100},"a":{"a":0,"k":[0,0]},"s":{"a":0,"k":[-100,100]},"p":{"a":0,"k":[-278.635,758.489]},"r":{"a":0,"k":180.02333923010465}}]},{"ty":"gr","nm":"c2 shape group","it":[{"ty":"sh","ks":{"a":0,"k":{"c":true,"v":[[789.0692,496.2843],[540.8393,248.0487],[292.6094,496.2843],[540.8393,744.52]],"i":[[0,137.09679999999997],[137.09360000000004,0],[0,-137.0967],[-137.09359999999998,0]],"o":[[0,-137.0967],[-137.09360000000004,0],[0,137.0967],[137.09360000000004,0]]}}},{"ty":"st","o":{"a":0,"k":0},"w":{"a":0,"k":0},"c":{"a":0,"k":[0,0,0,0]},"lc":3,"lj":1,"ml":1},{"ty":"fl","o":{"a":0,"k":100},"r":2,"c":{"a":0,"k":[0.023529411764705882,0.023529411764705882,0.023529411764705882,1]}},{"ty":"tr","o":{"a":0,"k":100},"a":{"a":0,"k":[0,0]},"s":{"a":0,"k":[-100,100]},"p":{"a":0,"k":[-278.635,758.489]},"r":{"a":0,"k":180.02333923010465}}]},{"ty":"gr","nm":"c2 shape group","it":[{"ty":"sh","ks":{"a":0,"k":{"c":true,"v":[[798.7921,496.2843],[540.8393,238.3316],[282.8865,496.2843],[540.8393,754.2371]],"i":[[0,142.46340000000004],[142.46339999999998,0],[0,-142.46329999999995],[-142.46339999999998,0]],"o":[[0,-142.46329999999995],[-142.46339999999998,0],[0,142.46329999999995],[142.46339999999998,0]]}}},{"ty":"st","o":{"a":0,"k":0},"w":{"a":0,"k":0},"c":{"a":0,"k":[0,0,0,0]},"lc":3,"lj":1,"ml":1},{"ty":"fl","o":{"a":0,"k":100},"r":2,"c":{"a":0,"k":[1,1,1,1]}},{"ty":"tr","o":{"a":0,"k":100},"a":{"a":0,"k":[0,0]},"s":{"a":0,"k":[-100,100]},"p":{"a":0,"k":[-278.635,758.489]},"r":{"a":0,"k":180.02333923010465}}]},{"ty":"gr","nm":"c2 shape group","it":[{"ty":"sh","ks":{"a":0,"k":{"c":true,"v":[[803.044,496.2843],[540.8393,234.0796],[278.6346,496.2843],[540.8393,758.4891]],"i":[[0,144.81170000000003],[144.81169999999997,0],[0,-144.8116],[-144.81169999999997,0]],"o":[[0,-144.8116],[-144.81169999999997,0],[0,144.81160000000006],[144.81169999999997,0]]}}},{"ty":"st","o":{"a":0,"k":0},"w":{"a":0,"k":0},"c":{"a":0,"k":[0,0,0,0]},"lc":3,"lj":1,"ml":1},{"ty":"fl","o":{"a":0,"k":100},"r":2,"c":{"a":0,"k":[0,0,0.4980392156862745,1]}},{"ty":"tr","o":{"a":0,"k":100},"a":{"a":0,"k":[0,0]},"s":{"a":0,"k":[-100,100]},"p":{"a":0,"k":[-278.635,758.489]},"r":{"a":0,"k":180.02333923010465}}]}],"op":767}],"op":767,"w":550,"h":550}